digraph Tree {
node [shape=box, style="filled, rounded", color="black", fontname="helvetica"] ;
edge [fontname="helvetica"] ;
0 [label="X <= -0.35\nsquared_error = 0.005\nsamples = 200\nvalue = 0.099", fillcolor="#f8dcc8"] ;
1 [label="X <= -0.405\nsquared_error = 0.001\nsamples = 33\nvalue = 0.193", fillcolor="#e99355"] ;
0 -> 1 [labeldistance=2.5, labelangle=45, headlabel="True"] ;
2 [label="squared_error = 0.001\nsamples = 21\nvalue = 0.216", fillcolor="#e58139"] ;
1 -> 2 ;
3 [label="squared_error = 0.0\nsamples = 12\nvalue = 0.153", fillcolor="#efb286"] ;
1 -> 3 ;
4 [label="X <= 0.331\nsquared_error = 0.004\nsamples = 167\nvalue = 0.081", fillcolor="#fbebdf"] ;
0 -> 4 [labeldistance=2.5, labelangle=-45, headlabel="False"] ;
5 [label="squared_error = 0.001\nsamples = 134\nvalue = 0.055", fillcolor="#ffffff"] ;
4 -> 5 ;
6 [label="squared_error = 0.001\nsamples = 33\nvalue = 0.186", fillcolor="#ea995f"] ;
4 -> 6 ;
}